-0.437561203024175,0.411671151274245,0.217536312779408,0.193699284216219,-0.141048122427249,-0.24718845985196,0.430684929205892,-0.155612093313732,-0.0655677866380533,0.380004183644777,-0.0571977445344896,0.0710455575447047,-0.224935232837281,-0.417650409814352,0.172016428483543,0.0437178878506308,0.0698375113415026,-0.371562541286872,0.362918138466903,0.420070450142049,0.143932654014658,-0.261721735238062,0.0663045048342449,-0.333344757519785,-0.232505938772152,-0.0201391253856795,0.247191638191362,0.475667910974614,0.493325510259686,-0.239673578377776,-0.122830804334886,-0.141270927969541,-0.135248200481695,-0.293526348380754,0.335536945713756,-0.507857192410229,0.0573201951659966,0.296296301587462,-0.463891009966709,-0.0561554394204486,-0.378711325200673,-0.152102443305378,-0.394208485728459,0.45613429523353,0.398211111784657,-0.243938373919182,0.10969007527236,0.271533960944373,0.067909777889514,-0.317321868196392,0.49936827277504,-0.230474700412995,0.0574441559412719,-0.435358703861504,-0.125252792345543,0.50003644730903,-0.433313282374193,-0.0602772877969341,0.0181281923184284,0.322145366775052,0.142253851579778,-0.197736143283176,-0.209738088284006,0.457001474072843,0.326136748060922,0.303930945581561,-0.113519246957823,-0.248570990724782,-0.170247926499257,-0.262825630142775,-0.266906079137955,-0.126142707026717,-0.382370013749444,-0.494945107716392,0.686564779692722,0.0675504529039912,0.667021499913682,0.457445555248873,0.368761276091577,0.0737135376113801,0.209064298771367,-0.310554262220928,
