0.417337142886814,-0.749602467798679,-0.282322804838183,-0.137081169906728,0.377938551814731,0.351096727309945,0.35443676817417,0.469357260512339,-0.380622241817792,0.602757643869633,0.20033356266553,0.550979420119253,0.149795361046712,-0.203202733121486,-0.0971310892789253,0.393701938842588,-0.525927474837573,-0.817951680537571,-0.676035630781005,-0.276410741005434,0.264027411781352,-2.09667898877546,-1.78410193211794,-2.00043449404337,0.102716948471574,0.303618140464331,0.42839562562853,0.489732919369455,0.125073984557226,-0.368279072782078,0.137031695446826,0.0158118558674782,0.0793653340276093,-0.667514779426227,0.164127159156527,-0.0511147633790287,-0.159825925227899,0.467532176867222,-0.174313426678234,0.437121714327319,0.469633723049991,-0.112741116838999,-0.487079253141908,1.69270069495273,-0.278863691798959,0.341726684935354,-0.311632343455479,0.564279499981578,0.501650902181042,-0.299241365835779,-0.199461150823984,0.642593618902204,-0.0403670938915789,0.159688507327612,0.0436860293110654,0.121161159124772,0.294254997386114,-1.50019902588783,-0.640589347153239,-0.650612402465139,-0.156967663726988,-0.121238327521074,0.0986469009577168,0.0407736753130571,-0.0678645282695809,0.199548424244296,0.330291468209962,-0.0472427450519981,0.215662261534231,-0.025978535692044,-0.716952258602247,-1.22876797931175,2.23927914068554,-1.75095773094658,1.23441019554576,0.748706492563931,0.503857834861604,1.89720359276419,-1.53688631569811,1.12063753702361,0.278678750209206,0.920718139371613,
