0.438913844956446,0.252544995125835,0.190106538233388,0.511249394388657,-0.40385378199585,0.185864612053495,-0.131979328978453,-0.617532066806818,0.0532763472163891,-2.64714117041566,-0.164492611924303,-1.04066011246474,0.536675778602994,0.334440495992568,-0.0484481744772988,-0.00479714440799754,0.277698638121985,0.0360609944554076,0.847982876607722,-0.881645655784861,0.612884464085826,0.224740935595957,-0.245493428523977,0.187762490662788,-0.21423517553511,-0.219926410255273,0.254484040467739,0.545048131029962,-0.0768787044807833,-0.353116571106818,-0.217141087722644,0.116784934502304,0.192862536726359,0.195982253090529,0.486291852904968,0.30918563354257,1.59579683368093,-2.82109539596619,-2.27867966549495,1.84425525478624,-0.185952140627405,3.86676977740356,0.0751961218702737,0.0155885046356162,0.260244752612452,-0.154303792511158,0.0934040134625123,-0.36239323182424,-1.06331221799424,1.94694254591204,-1.58025001103017,0.447084958560323,-0.712301980005415,0.315946423820742,0.529752260012653,0.141884366335772,-0.270442279103523,0.516436924484019,-0.184617853340557,-0.772036584375753,-0.0525670669452227,0.0518006674223656,0.251027035843814,-0.0828827678550355,0.345449990113407,-0.14903902814554,-0.00676583083133527,0.207726748664733,-0.0102243347751743,0.204374920975539,-0.49481517452556,1.90965810896414,0.71009866355938,1.28828255713488,-1.81061632933733,1.01292557941731,0.168611743811851,-1.81102138230804,-1.02269207861215,-1.3150103172543,0.942348464426071,3.31011442042398,
